digraph Tree {
node [shape=box] ;
0 [label="sex=male <= 0.5\nentropy = 0.931\nsamples = 1116\nvalue = [729, 387]"] ;
1 [label="pclass=3rd <= 0.5\nentropy = 0.926\nsamples = 398\nvalue = [136, 262]"] ;
0 -> 1 [labeldistance=2.5, labelangle=45, headlabel="True"] ;
2 [label="age <= 2.5\nentropy = 0.448\nsamples = 214\nvalue = [20, 194]"] ;
1 -> 2 ;
3 [label="entropy = 1.0\nsamples = 2\nvalue = [1, 1]"] ;
2 -> 3 ;
4 [label="entropy = 0.435\nsamples = 212\nvalue = [19, 193]"] ;
2 -> 4 ;
5 [label="age <= 19.5\nentropy = 0.95\nsamples = 184\nvalue = [116, 68]"] ;
1 -> 5 ;
6 [label="entropy = 0.98\nsamples = 24\nvalue = [10, 14]"] ;
5 -> 6 ;
7 [label="entropy = 0.922\nsamples = 160\nvalue = [106, 54]"] ;
5 -> 7 ;
8 [label="age <= 12.0\nentropy = 0.667\nsamples = 718\nvalue = [593, 125]"] ;
0 -> 8 [labeldistance=2.5, labelangle=-45, headlabel="False"] ;
9 [label="pclass=3rd <= 0.5\nentropy = 0.795\nsamples = 25\nvalue = [6, 19]"] ;
8 -> 9 ;
10 [label="entropy = 0.0\nsamples = 14\nvalue = [0, 14]"] ;
9 -> 10 ;
11 [label="entropy = 0.994\nsamples = 11\nvalue = [6, 5]"] ;
9 -> 11 ;
12 [label="pclass=1st <= 0.5\nentropy = 0.617\nsamples = 693\nvalue = [587, 106]"] ;
8 -> 12 ;
13 [label="entropy = 0.49\nsamples = 543\nvalue = [485, 58]"] ;
12 -> 13 ;
14 [label="entropy = 0.904\nsamples = 150\nvalue = [102, 48]"] ;
12 -> 14 ;
}